Language model created by QuickLM on Fri Nov 15 21:33:23 EST 2013
Copyright (c) 1996-2010 Carnegie Mellon University and Alexander I. Rudnicky

The model is in standard ARPA format, designed by Doug Paul while he was at MITRE.

The code that was used to produce this language model is available in Open Source.
Please visit http://www.speech.cs.cmu.edu/tools/ for more information

The (fixed) discount mass is 0.5. The backoffs are computed using the ratio method.
This model based on a corpus of 30 sentences and 37 words

\data\
ngram 1=37
ngram 2=66
ngram 3=40

\1-grams:
-0.8239 </s> -0.3010
-0.8239 <s> -0.2175
-2.3010 A -0.2967
-2.0000 BITCH -0.2304
-2.3010 BULLSHIT -0.2304
-2.3010 DAMN -0.2304
-2.3010 DAMNED -0.2304
-2.3010 DAMNIT -0.2304
-2.0000 ERROR -0.2304
-2.3010 ERRORS -0.2304
-2.3010 FAULT -0.2304
-2.3010 FUCK -0.2304
-2.3010 FUCKED -0.2304
-2.0000 FUCKER -0.2304
-2.3010 FUCKING -0.2304
-2.3010 FUCKS -0.2304
-2.3010 GOD -0.2304
-2.3010 GODDAMN -0.2304
-2.3010 GODDAMNIT -0.2304
-2.3010 GOODBYE -0.2304
-2.0000 GOT -0.2967
-2.3010 I -0.2967
-2.3010 IT -0.2304
-2.3010 MOTHER -0.2967
-2.3010 OF -0.2989
-2.3010 SEG -0.2989
-2.3010 SHIT -0.2304
-2.3010 SHITTY -0.2304
-2.3010 SON -0.2989
-2.3010 SYNTAX -0.2967
-2.3010 THAT'S -0.2967
-2.3010 THIS -0.2304
-2.3010 WARNING -0.2304
-2.3010 WARNINGS -0.2304
-2.0000 WHY -0.2304
-2.3010 WHY'D -0.2304
-2.3010 WHY'S -0.2304

\2-grams:
-1.7782 <s> BITCH 0.0000
-1.7782 <s> BULLSHIT 0.0000
-1.7782 <s> DAMN 0.0000
-1.7782 <s> DAMNED 0.0000
-1.7782 <s> DAMNIT 0.0000
-1.7782 <s> ERROR 0.0000
-1.7782 <s> ERRORS 0.0000
-1.7782 <s> FUCK 0.0000
-1.7782 <s> FUCKED 0.0000
-1.7782 <s> FUCKER 0.0000
-1.7782 <s> FUCKING 0.0000
-1.7782 <s> FUCKS 0.0000
-1.7782 <s> GOD 0.0000
-1.7782 <s> GODDAMN 0.0000
-1.7782 <s> GODDAMNIT 0.0000
-1.7782 <s> GOODBYE 0.0000
-1.7782 <s> GOT -0.1761
-1.7782 <s> I 0.0000
-1.7782 <s> MOTHER 0.0000
-1.7782 <s> SEG 0.0000
-1.7782 <s> SHIT 0.0000
-1.7782 <s> SHITTY 0.0000
-1.7782 <s> SON 0.0000
-1.7782 <s> SYNTAX 0.0000
-1.7782 <s> THAT'S 0.0000
-1.7782 <s> WARNING 0.0000
-1.7782 <s> WARNINGS 0.0000
-1.7782 <s> WHY 0.0000
-1.7782 <s> WHY'D 0.0000
-1.7782 <s> WHY'S 0.0000
-0.3010 A BITCH 0.0000
-0.3010 BITCH </s> -0.3010
-0.3010 BULLSHIT </s> -0.3010
-0.3010 DAMN </s> -0.3010
-0.3010 DAMNED </s> -0.3010
-0.3010 DAMNIT </s> -0.3010
-0.3010 ERROR </s> -0.3010
-0.3010 ERRORS </s> -0.3010
-0.3010 FAULT </s> -0.3010
-0.3010 FUCK </s> -0.3010
-0.3010 FUCKED </s> -0.3010
-0.3010 FUCKER </s> -0.3010
-0.3010 FUCKING </s> -0.3010
-0.3010 FUCKS </s> -0.3010
-0.3010 GOD </s> -0.3010
-0.3010 GODDAMN </s> -0.3010
-0.3010 GODDAMNIT </s> -0.3010
-0.3010 GOODBYE </s> -0.3010
-0.6021 GOT IT 0.0000
-0.6021 GOT THIS 0.0000
-0.3010 I GOT -0.1761
-0.3010 IT </s> -0.3010
-0.3010 MOTHER FUCKER 0.0000
-0.3010 OF A 0.0000
-0.3010 SEG FAULT 0.0000
-0.3010 SHIT </s> -0.3010
-0.3010 SHITTY </s> -0.3010
-0.3010 SON OF 0.0000
-0.3010 SYNTAX ERROR 0.0000
-0.3010 THAT'S WHY 0.0000
-0.3010 THIS </s> -0.3010
-0.3010 WARNING </s> -0.3010
-0.3010 WARNINGS </s> -0.3010
-0.3010 WHY </s> -0.3010
-0.3010 WHY'D </s> -0.3010
-0.3010 WHY'S </s> -0.3010

\3-grams:
-0.3010 <s> BITCH </s>
-0.3010 <s> BULLSHIT </s>
-0.3010 <s> DAMN </s>
-0.3010 <s> DAMNED </s>
-0.3010 <s> DAMNIT </s>
-0.3010 <s> ERROR </s>
-0.3010 <s> ERRORS </s>
-0.3010 <s> FUCK </s>
-0.3010 <s> FUCKED </s>
-0.3010 <s> FUCKER </s>
-0.3010 <s> FUCKING </s>
-0.3010 <s> FUCKS </s>
-0.3010 <s> GOD </s>
-0.3010 <s> GODDAMN </s>
-0.3010 <s> GODDAMNIT </s>
-0.3010 <s> GOODBYE </s>
-0.3010 <s> GOT IT
-0.3010 <s> I GOT
-0.3010 <s> MOTHER FUCKER
-0.3010 <s> SEG FAULT
-0.3010 <s> SHIT </s>
-0.3010 <s> SHITTY </s>
-0.3010 <s> SON OF
-0.3010 <s> SYNTAX ERROR
-0.3010 <s> THAT'S WHY
-0.3010 <s> WARNING </s>
-0.3010 <s> WARNINGS </s>
-0.3010 <s> WHY </s>
-0.3010 <s> WHY'D </s>
-0.3010 <s> WHY'S </s>
-0.3010 A BITCH </s>
-0.3010 GOT IT </s>
-0.3010 GOT THIS </s>
-0.3010 I GOT THIS
-0.3010 MOTHER FUCKER </s>
-0.3010 OF A BITCH
-0.3010 SEG FAULT </s>
-0.3010 SON OF A
-0.3010 SYNTAX ERROR </s>
-0.3010 THAT'S WHY </s>

\end\
